digraph Tree {
node [shape=box] ;
0 [label="X[3] <= 0.8\ngini = 0.666\nsamples = 105\nvalue = [36, 36, 33]"] ;
1 [label="gini = 0.0\nsamples = 36\nvalue = [36, 0, 0]"] ;
0 -> 1 [labeldistance=2.5, labelangle=45, headlabel="True"] ;
2 [label="X[3] <= 1.75\ngini = 0.499\nsamples = 69\nvalue = [0, 36, 33]"] ;
0 -> 2 [labeldistance=2.5, labelangle=-45, headlabel="False"] ;
3 [label="X[2] <= 5.35\ngini = 0.145\nsamples = 38\nvalue = [0, 35, 3]"] ;
2 -> 3 ;
4 [label="gini = 0.054\nsamples = 36\nvalue = [0, 35, 1]"] ;
3 -> 4 ;
5 [label="gini = 0.0\nsamples = 2\nvalue = [0, 0, 2]"] ;
3 -> 5 ;
6 [label="X[2] <= 4.85\ngini = 0.062\nsamples = 31\nvalue = [0, 1, 30]"] ;
2 -> 6 ;
7 [label="gini = 0.444\nsamples = 3\nvalue = [0, 1, 2]"] ;
6 -> 7 ;
8 [label="gini = 0.0\nsamples = 28\nvalue = [0, 0, 28]"] ;
6 -> 8 ;
}